svm_type c_svc
kernel_type rbf
gamma 0.037037
nr_class 10
total_sv 33
rho -0.255405 -0.307105 -0.327007 -0.311863 -0.327024 0.0637488 -0.342473 -0.346164 -0.321575 -0.0559017 -0.0782211 -0.0613214 -0.0779627 0.308037 -0.0953847 -0.0953765 -0.0557979 -0.0227543 -0.00542671 -0.0224953 0.358734 -0.0398026 -0.0397753 -3.40604e-07 0.0168067 -0.000294648 0.37796 -0.0175234 -0.0175118 0.0223477 -0.0167052 0.362472 -0.0342884 -0.0342902 0.00542993 0.379855 -0.0176118 -0.017511 0.0222787 -0.392019 -0.406319 -0.383031 -1.74673e-12 0.0396951 0.0396585
label 0 1 2 3 4 5 6 7 8 9
nr_sv 5 3 3 2 2 3 8 2 2 3
SV
0.2726823327527574 0.2536379106330773 0.2461640072840337 0.251946699656483 0.2465241787523249 0.3003676759093786 0.2414338897128909 0.2482558511121946 0.3246507723079201 1:4 2:6 3:7 4:6 5:6 6:6 7:6 8:6 9:6 10:6 11:6 12:6 13:4 16:1 17:7 18:9 19:11 20:6 21:4 22:4 23:6 24:11 25:9 26:7 
0.4200055829958821 0.3908199503108793 0.3795789473399571 0.3877016571539428 0.3797376652659447 0.5915852758149261 0.3707346252545247 0.3811240111960821 0.3895373535852512 1:4 2:6 3:6 4:6 5:6 6:6 7:5 8:5 9:5 10:6 11:6 12:6 13:4 14:2 17:7 18:7 19:12 20:6 21:4 22:4 23:6 24:12 25:9 26:6 
0 0 0 0 0 0.09936859590861934 0 0 0 1:4 2:6 3:6 4:5 5:6 6:6 7:6 8:6 9:6 10:6 11:6 12:6 13:4 17:7 18:9 19:11 20:6 21:4 22:4 23:6 24:11 25:8 26:7 
0.6555760328396552 0.6113627605302813 0.592948038472632 0.6057872465114081 0.5929104409113687 1 0.5791025284566029 0.5738850551806699 0.5987301766257008 1:4 2:5 3:6 4:4 5:4 6:6 7:4 8:6 9:4 10:4 11:6 12:4 13:3 17:7 18:6 19:9 20:4 21:4 22:3 23:6 24:9 25:5 26:7 
0.227911328021111 0.2127138184829287 0.2065110153081729 0.2112366749227022 0.2064878808770707 0.442078283008236 0.2012077783835133 0.2040615567321434 0.2294476954868801 1:4 2:6 3:6 4:6 5:5 6:6 7:6 8:6 9:6 10:6 11:6 12:6 13:4 15:1 17:7 18:9 19:11 20:6 21:4 22:4 23:6 24:11 25:8 26:7 27:1 
-0.1568420897462165 0.120086329460671 0.1211026997033133 0.1155983760400843 0.1187672120288209 0.1671515646744779 0.1157849349095647 0.115587509196616 0.1203739623193956 1:3 2:6 3:6 4:3 5:3 6:3 7:3 8:3 9:3 10:3 11:3 12:8 13:9 18:4 19:4 20:4 21:13 22:12 23:13 24:2 25:2 26:2 
-0.7656121043689406 0.5767904700755583 0.5635754616078366 0.5723036665664062 0.5616726895087466 0.7973808586156527 0.5516411210670704 0.5515920439620794 0.5749761680524306 1:3 2:6 3:4 4:3 5:3 6:3 7:4 8:3 9:3 10:3 11:4 12:9 13:9 16:1 17:1 18:4 19:4 20:3 21:13 22:11 23:13 24:2 25:2 26:2 27:1 
-0.6537210824942485 0.4904433322385613 0.4752153376231324 0.4909064644502548 0.4769187429907573 0.6784024814217635 0.4686411476618041 0.4688026491046873 0.4902417906207065 1:3 2:6 3:6 4:3 5:3 6:3 7:3 8:3 9:3 10:3 11:2 12:9 13:9 18:4 19:4 20:4 21:13 22:12 23:13 24:2 25:2 26:2 
-0.663309418103404 -0.5357789181748078 0.5 0.5029936787095213 0.4956304177340482 0.6933634707785683 0.4859117870806152 0.4859705455003083 0.5070613770219865 1:6 2:8 3:5 4:4 5:3 6:2 7:2 8:3 9:4 10:3 11:3 12:9 13:9 16:1 17:5 18:6 19:7 20:6 21:6 22:7 23:9 24:7 25:5 26:1 27:1 
-0.4048324687944382 -0.3220546926333368 0.3302950020279121 0.3069681278806503 0.3120100963145732 0.4173061853310767 0.2957518393597935 0.2920179682001132 0.3086900299255242 1:6 2:8 3:5 4:3 5:3 6:2 7:2 8:2 9:3 10:3 11:3 12:9 13:9 17:5 18:6 19:7 20:6 21:6 22:7 23:9 24:7 25:5 
-0.4003925530593242 -0.3294865209666459 0.2906103805972663 0.3069663162126115 0.3033016080153297 0.4186509674664418 0.2983742465705223 0.3003261905507347 0.3074194119470941 1:6 2:9 3:5 4:3 5:3 6:2 7:2 8:2 9:3 10:3 11:3 12:9 13:9 17:5 18:6 19:7 20:6 21:6 22:7 23:9 24:7 25:5 26:1 
-0.7128936164070283 -0.5770285152653089 -0.5752879239965418 0.5455281433494159 0.5717119444572195 0.7370169182950452 0.5259877180005916 0.5282508598424911 0.548754731416313 1:5 2:7 3:4 4:3 5:4 6:5 7:5 8:3 9:3 10:3 11:5 12:7 13:5 18:4 19:6 20:6 21:6 22:9 23:13 24:9 25:6 
-0.7123083919977674 -0.5828649836689733 -0.5456174586286365 0.5464199548885859 0.6392868163065394 0.7452262313611202 0.5312695873679218 0.5282264036268038 0.5502176738572662 1:5 2:7 3:4 4:2 5:4 6:6 7:5 8:3 9:3 10:3 11:5 12:7 13:5 18:4 19:6 20:6 21:6 22:9 23:13 24:8 25:6 26:1 
-0.7291580275703885 -0.5897656424538334 -0.5596624735663204 -0.5465870824839527 0.5477014445613961 0.7583161051852996 0.5345958991639121 0.5346610591215547 0.5581099300670216 1:3 2:4 3:5 4:4 5:5 6:5 7:5 8:5 9:11 10:10 11:3 12:3 13:3 17:3 18:4 19:4 20:5 21:5 22:4 23:13 24:11 25:13 26:2 27:2 
-0.7275142506741478 -0.5890428646029118 -0.5572656492364627 -0.5453610157540492 0.5441491629617597 0.755296466776045 0.5380422640700481 0.5380337268052497 0.5588699499107979 1:3 2:4 3:5 4:5 5:5 6:5 7:5 8:5 9:11 10:11 11:3 12:3 13:3 17:3 18:4 19:4 20:5 21:5 22:4 23:13 24:13 25:13 26:2 27:2 
-0.6867121653985395 -0.5569467368990343 -0.5503701181542872 -0.5216340699145443 -0.5277780329421865 0.7172341855979817 0.5059091812890091 0.5114380341444874 0.5325206204328282 1:8 2:8 3:2 4:2 5:5 6:7 7:4 8:3 9:3 10:3 11:5 12:7 13:5 18:8 19:8 20:6 21:6 22:8 23:9 24:9 25:8 
-0.05079584875007905 -0.04345606166334046 -0.03340734152669579 -0.1702002670596078 -0.03641758272035849 0.03962129469916766 0.041587310194899 0.03355553520070247 0.03290849107575564 1:8 2:8 3:2 4:2 5:5 6:7 7:4 8:3 9:3 10:3 11:5 12:7 13:4 18:8 19:8 20:6 21:6 22:8 23:9 24:9 25:7 
-0.6881521516580904 -0.55695584596595 -0.527164662382968 -0.5191644237896068 -0.5276549918606108 0.733252830222814 0.5092725019805782 0.5122015038327201 0.5359160780819165 1:8 2:8 3:2 4:2 5:5 6:7 7:4 8:4 9:3 10:3 11:5 12:7 13:4 16:1 18:8 19:8 20:6 21:6 22:8 23:9 24:9 25:7 
-0 -0 -0 -0 -0 -0 0 0 0.1685790193288839 1:5 2:7 3:5 4:3 5:3 6:7 7:9 8:8 9:5 10:6 11:7 12:7 13:5 17:6 18:8 19:11 20:9 21:7 22:6 23:8 24:10 25:8 26:4 
-0.526756312413363 -0.3251221898447522 -0.3010732892961179 -0.2910422034329569 -0.299454355074381 -0.2887967952570004 0.285367057800288 0.2569916605610585 0.2736423906093341 1:5 2:8 3:5 4:4 5:3 6:7 7:8 8:8 9:6 10:7 11:6 12:5 13:5 17:7 18:8 19:11 20:8 21:8 22:6 23:7 24:10 25:8 26:4 
-0.3771304389170098 -0.2957821912328448 -0.276856314426218 -0.269672816655898 -0.2720705112012058 -0.2746657020520877 0.2590149305460392 0.288199339187689 0.3015790885696988 1:5 2:6 3:4 4:3 5:3 6:7 7:7 8:8 9:7 10:3 11:6 12:7 13:5 17:6 18:7 19:9 20:9 21:7 22:6 23:8 24:9 25:7 26:3 
-0 -0 -0 -0 -0 -0 0 0 0.01613052075038803 1:5 2:7 3:5 4:3 5:3 6:7 7:9 8:7 9:5 10:6 11:7 12:7 13:5 17:6 18:8 19:11 20:9 21:7 22:6 23:8 24:9 25:8 26:4 
-0.2520341991160013 -0.194808712559353 -0.1811283335468216 -0.1745730276951677 -0.1802026442027609 -0.1747515514304871 0.1713325713959746 0.1534469339406927 0.2772370094636515 1:5 2:7 3:5 4:3 5:3 6:7 7:9 8:8 9:5 10:6 11:6 12:7 13:5 17:6 18:9 19:11 20:9 21:7 22:6 23:8 24:10 25:6 26:4 
-0.4876376846170186 -0.3007893646226428 -0.2806240644572757 -0.2693297947242237 -0.2773685309016157 -0.2658558647107753 0.2644447354082254 0.2420735979457559 0.2540468675032742 1:6 2:5 3:5 4:3 5:2 6:7 7:6 8:7 9:5 10:5 11:7 12:6 13:5 17:7 18:7 19:8 20:9 21:6 22:5 23:7 24:8 25:7 26:4 27:1 
-0.6127047074965983 -0.4072690011403758 -0.3810629865486307 -0.3708034142423214 -0.3752743032384259 -0.3804263133696896 0.3589617923010825 0.3437313217956115 0.3655701540565975 1:5 2:6 3:4 4:2 5:3 6:6 7:7 8:7 9:4 10:5 11:6 12:4 13:5 17:5 18:7 19:9 20:7 21:7 22:6 23:6 24:7 25:6 26:4 
-0.1771364880811692 -0.1191634453119258 -0.108575635301023 -0.1068218929055978 -0.1092422273429553 -0.1056120836999231 0.1045504833785016 0.22257256212294 0 1:5 2:7 3:5 4:3 5:3 6:7 7:9 8:8 9:6 10:6 11:7 12:7 13:5 17:6 18:9 19:11 20:9 21:7 22:6 23:8 24:10 25:8 26:4 
-0.698824348275872 -0.5718668775128105 -0.5381963529503091 -0.5291558927850926 -0.5298810078801132 -0.5301709839274312 -0.7220878698501796 0.5183272757680777 0.5390990921451762 1:9 2:9 3:2 4:2 5:2 6:3 7:2 8:3 9:2 10:3 11:2 12:3 13:3 18:2 19:4 20:6 21:9 22:6 23:6 24:5 25:4 26:3 
-0.6936544735316597 -0.5642003261256286 -0.5418415200606219 -0.5281014125834208 -0.5427571553538471 -0.526598009537055 -0.7215837009799317 0.518981375844244 0.5390956350659575 1:9 2:9 3:2 4:2 5:2 6:2 7:2 8:3 9:2 10:3 11:2 12:3 13:3 18:2 19:4 20:6 21:8 22:6 23:6 24:5 25:4 26:3 
-0.710495367179539 -0.5716271119649938 -0.5406291392932657 -0.5317002957402576 -0.5299405754680921 -0.5331465838518956 -0.7664090171039478 -0.5186546956484583 0.5770689285530424 1:4 2:6 3:6 4:6 5:7 6:6 7:6 8:6 9:7 10:6 11:7 12:8 13:6 17:3 18:8 19:12 20:11 21:7 22:7 23:11 24:11 25:8 26:3 
-0.6968311070415512 -0.5643550902983888 -0.5376855649578903 -0.5247769677290374 -0.5427542104587123 -0.5240484893260143 -0.7406063984497998 -0.5186539559638631 0.5630629170743675 1:4 2:6 3:6 4:6 5:7 6:6 7:6 8:7 9:7 10:6 11:7 12:8 13:6 17:3 18:8 19:12 20:11 21:7 22:7 23:11 24:12 25:8 26:3 
-0.5218387814734139 -0.3301247042328121 -0.3137418844427995 -0.3081092935649118 -0.3067643847440151 -0.316526342922382 -0.6040850460972748 -0.2973469065977061 -0.4795107077137808 1:5 2:7 3:7 4:6 5:6 6:8 7:8 8:7 9:3 10:3 11:5 12:7 13:5 17:4 18:8 19:10 20:8 21:6 22:7 23:9 24:11 25:8 26:6 
-0.3467944815117702 -0.320474803445469 -0.3032301928499712 -0.2979006271771795 -0.3067726939133238 -0.2949328371210033 -0.3909040792440304 -0.2973325796336131 -0.2459177284817045 1:5 2:7 3:7 4:6 5:6 6:8 7:9 8:7 9:3 10:3 11:5 12:7 13:5 17:4 18:8 19:10 20:8 21:6 22:7 23:9 24:11 25:9 26:6 
-0.6737327350205681 -0.5349924133142515 -0.5061987416018342 -0.4929624845314877 -0.5034428013204807 -0.4898860095471153 -0.6617959249405231 -0.4835152409798145 -0.4147034094319245 1:5 2:7 3:7 4:6 5:6 6:8 7:9 8:7 9:3 10:3 11:4 12:8 13:5 16:1 17:4 18:8 19:10 20:8 21:6 22:7 23:8 24:11 25:8 26:7 
